UNK 0.100933 0.119052 0.149382 0.0218328 -0.143053 -0.0724439 -0.0196338 0.0902091 -0.031795 0.0185775 0.149792 -0.0841115 -0.146583 -0.106956 -0.057587 -0.0529196 0.12441 0.0765536 -0.0985735 0.0159452 0.0271825 -0.0811849 -0.0175651 -0.0131942 -0.107763 -0.0413101 0.152332 -0.0699432 -0.0623912 0.0764727 0.0468569 -0.00970839 -0.0387819 -0.0159488 -0.0722444 0.0123203 -0.0679929 -0.129882 -0.143401 0.0176802 -0.0380102 0.0243009 -0.0376385 -0.120759 0.0426768 -0.150233 0.00929701 -0.0559671 -0.0132595 0.0649278 -0.0110009 0.0510544 -0.135854 0.0588453 0.0665614 0.158151 -0.0422969 -0.145779 0.149893 0.082587 0.0408293 -0.131558 -0.00218078 -0.129888 0.0404783 0.105925 0.0848828 -0.069032 0.0935459 -0.15243 0.0183651 0.0669912 0.112538 -0.0127467 0.109375 0.0134076 0.0710998 -0.0999215 0.13964 0.109161 0.153314 0.0653161 0.123426 0.138324 0.00986581 -0.0278879 0.0125608 -0.0680432 0.124802 0.0846306 0.0145994 -0.0625017 -0.127241 -0.129972 0.0397286 -0.0193385 0.0242627 -0.0512545 -0.00238119 -0.148592 0.0212661 -0.0902188 0.0893272 0.0249592 0.0405153 -0.0999769 0.0859086 -0.0488156 0.053163 0.0172195 0.0269982 -0.0453195 0.0772927 -0.135422 0.0727347 0.123276 0.110262 0.0429785 -0.131512 0.118989 -0.143738 0.0241607 -0.0805221 0.137029 0.126818 0.0193556 -0.136857 0.0990871 
河南 -0.0428797 0.112821 0.0926553 -0.0484458 -0.0767641 -0.0403892 -0.0894838 -0.105489 -0.154802 -0.00488088 0.0424408 -0.0887983 -0.0234741 0.122634 0.114098 -0.00728652 -0.0825293 0.0561025 0.110165 0.134017 -0.0453251 -0.137332 -0.107095 -0.103908 -0.0267232 0.055681 0.0355205 -0.0575525 -0.024198 -0.126592 0.147986 -0.0702205 0.0466897 0.0628193 0.0549137 -0.0128952 -0.137573 0.112776 -0.10871 -0.122593 -0.123751 -0.0722572 0.045102 -0.0210453 -0.146006 0.0928568 0.101441 -0.0546144 0.13786 0.0475642 0.0318904 0.0507574 -0.013646 -0.074848 -0.0646677 0.070315 0.124609 -0.121826 -0.0819116 -0.00231594 0.00338963 -0.109393 -0.118437 0.125906 0.0413475 -0.115043 0.100131 0.0938457 -0.0416785 0.0561087 -0.0232608 0.070863 -0.0723471 0.120952 0.0859349 0.152885 0.129892 0.122537 -0.0726995 0.106924 0.107135 -0.0578456 -0.0892017 0.0971848 0.10547 -0.068169 -0.0823735 -0.0929424 -0.0130616 -0.0828078 -0.13023 0.081241 -0.105395 -0.000120064 0.137149 -0.0640028 0.0223617 0.0757556 -0.000711226 0.151115 -0.0941318 0.00702657 0.114349 0.11975 -0.141226 0.0831541 -0.066773 -0.1427 -0.0181243 0.0281752 0.0803094 -0.0218301 0.0858547 -0.108531 0.0557664 0.133622 0.0151761 0.0346508 0.141415 0.0942706 0.0962918 -0.0303319 -0.0815021 -0.0304677 -0.038372 0.00330267 0.062818 -0.0864153 
而且 0.0600763 -0.114191 0.183341 -0.0791054 -0.0986521 0.0928279 -0.190742 -0.0969014 -0.0682656 0.112318 0.0118286 0.125901 0.0186857 -0.170526 -0.0780423 -0.053733 0.0483715 0.0154021 0.116404 0.00331629 0.153662 0.0718638 0.0732395 -0.00905004 0.159351 -0.136215 0.0494191 0.0674311 -0.106101 -0.085733 -0.0427916 -0.0767406 -0.0906883 0.122864 0.00591487 0.0855605 -0.02071 -0.0877426 0.149247 0.0654196 0.0314749 -0.0235842 0.130975 0.0424547 0.140667 -0.102333 0.0483583 0.00769179 -0.0376421 0.0339341 0.134681 -0.0427005 -0.0416359 0.0790073 -0.0770641 0.0655558 0.0104423 -0.0979319 0.109686 0.0482569 -0.00723328 -0.158635 -0.153995 -0.0982383 -0.163951 0.0568564 -0.0126053 0.0531054 -0.151133 -0.0851983 -0.000270037 -0.0305239 -0.0139103 -0.0464209 -0.00739145 0.0584644 -0.0266715 -0.0583952 -0.106142 -0.124831 -0.0938008 0.0430699 0.104614 0.0389229 -0.0169658 0.103576 0.0461464 0.114502 -0.173738 0.0717197 0.0423023 -0.0208108 0.0993129 0.0990907 -0.0224347 -0.106178 -0.0745098 0.0323046 0.0782358 -0.0351759 0.0730982 0.0419495 -0.00790757 0.0278445 -0.0567048 -0.120667 -0.0468462 0.0402831 -0.109487 -0.105432 0.0235742 -0.0304662 0.0238898 0.0489348 0.163356 -0.239443 -0.0801841 0.0360476 -0.112597 0.116705 0.0660568 0.0178543 -0.0241515 0.045024 -0.0460525 -0.123516 0.0168583 -0.0694604 
联合国 -0.132941 -0.145467 0.0742369 0.0231744 -0.0330488 -0.0506921 0.14417 -0.0644572 0.010242 -0.015321 0.0210719 -0.0435812 -0.0282766 0.0625017 0.0702557 0.0242583 0.0797092 0.0429155 -0.00335405 -0.0134716 0.0663693 -0.122975 -0.135502 -0.0355838 0.142999 -0.0473396 0.0540099 -0.0989231 -0.0727386 -0.0844006 0.0558215 -0.0872657 0.0910823 -0.141743 -0.0418825 -0.170774 0.140913 -0.0841695 0.054248 0.0455127 -0.0800157 0.0550016 0.0642106 0.120251 -0.00690771 0.0883579 -0.144737 -0.061431 -0.110753 0.0433926 0.0438463 0.184962 -0.120874 0.0141769 0.00348503 0.03598 -0.0646366 -0.0434126 -0.104579 0.018714 0.0192376 -0.0382841 0.0696647 -0.0656348 0.0364504 0.00593716 -0.0340621 -0.0705193 0.118135 -0.037238 -0.101876 0.0464148 0.09061 -0.0422236 0.0406468 -0.0978207 -0.0002131 -0.0210446 0.145988 0.103367 0.107903 0.0929908 0.0373502 0.094103 -0.0747688 -0.0691019 0.077904 -0.132616 0.0928333 -0.0183578 -0.0767834 -0.101977 -0.0295394 0.149592 0.00477175 -0.09127 0.205511 -0.173548 -0.216201 -0.0608385 -0.038008 -0.0243578 0.0351692 0.110236 0.0882682 0.0562114 -0.055127 0.132276 0.0400685 0.123795 -0.0177944 -0.122915 0.0775464 -0.082523 -0.000840761 -0.126883 0.0694512 -0.0771323 -0.107036 -0.118404 -0.127557 0.132836 0.0710333 0.127536 0.0577853 -0.0775971 -0.122001 -0.0614212 
爆发 -0.0417742 -0.000784556 0.117286 0.0109121 0.139143 0.0417702 0.121152 -0.028598 -0.0965087 0.00546953 0.122313 -0.123383 -0.0249298 -0.168102 0.107449 -0.0190918 -0.0950075 -0.0512311 -0.0463056 -0.0103263 0.191308 -0.0790895 -0.0417549 -0.0372386 -0.0603276 0.0129218 -0.0439052 0.042975 -0.0427854 -0.0313815 0.131325 -0.0809983 -0.0367369 0.00220219 -0.0231547 -0.103428 -0.118985 -0.116525 0.0436498 0.0422173 0.194654 0.0152872 0.00407067 -0.11562 -0.102629 0.158986 0.0373869 0.056564 -0.0248007 0.00864836 -0.0335647 0.0271843 -0.139916 -0.0989046 0.139718 0.00477137 0.114157 0.0642247 0.0478045 0.159924 0.0534148 -0.0473882 0.0762175 0.139632 -0.213811 0.040635 0.120385 -0.0138702 -0.126544 0.0401911 0.00908902 -0.0326559 -0.0478012 0.0492766 0.0917277 -0.110701 -0.120849 -0.057014 0.00620173 0.0735074 -0.0579237 0.134267 -0.0765809 -0.125497 -0.0391819 -0.0242997 -0.141214 -0.00123797 0.022568 -0.103517 -0.0577131 -0.185769 0.00471504 -0.0277875 -0.041956 0.0224414 0.194676 0.10595 0.00865233 -0.0188162 -0.0538977 -0.0817678 0.0491095 -0.0487488 -0.151531 0.0386128 0.00965454 0.00777777 0.0723364 -0.0664752 0.010677 -0.188955 0.00618071 -0.0922933 0.0242996 -0.158107 -0.132341 0.0575261 -0.134259 0.0063326 -0.144854 -0.0683756 0.0976077 0.00885265 -0.00438388 -0.0145402 0.0248272 0.14393 
街道 0.108567 -0.0619982 0.0484759 0.0502202 0.0440489 0.109143 0.0892958 0.0770637 0.103307 -0.105612 -0.0105629 -0.0847137 -0.0270325 -0.0308615 -0.021557 0.0506541 -0.0627254 -0.133639 0.00876469 -0.133475 0.0458993 -0.0383299 0.0590006 0.0499711 0.0680656 0.0288293 -0.0180631 0.0941664 -0.0983606 -0.0594 0.0912215 -0.0291341 0.113179 0.123776 0.149433 0.186807 -0.019609 0.150188 -0.0989689 -0.0845358 -0.0705733 0.12315 -0.00034796 -0.0699247 0.00865688 -0.0221257 0.0115564 -0.0235902 -0.0259899 0.0145268 -0.0348182 0.035883 -0.025157 -0.024094 0.101679 -0.0195562 -0.112658 -0.0206739 -0.0963992 0.107187 -0.105803 -0.012128 0.161836 0.0692758 0.0913928 0.112691 -0.0170906 -0.112508 -0.00528057 0.113028 -0.0200905 -0.0625659 0.0355463 -0.0909499 0.156966 -0.0309687 -0.0421129 -0.192765 0.0560645 -0.13577 0.0834107 0.126016 -0.0642376 -0.00402353 -0.00386698 -0.0170353 0.0192093 -0.151771 0.212567 -0.0260622 0.122169 -0.00156669 -0.0891834 -0.127906 0.0142319 0.189512 -0.00933442 0.0254384 0.0777178 0.0421118 -0.00127774 0.0609455 0.0589252 -0.032212 -0.149584 -0.0327471 -0.0819746 -0.0999236 0.0079926 0.191627 -0.143745 -0.0606946 0.0604527 0.102268 0.0579568 -0.100828 -0.11617 0.0692561 0.0193058 -0.161434 0.121461 -0.120732 -0.0627258 -0.136581 0.0282316 -0.121904 0.0994591 -0.0445596 
电子 0.093564 -0.0878897 -0.0128083 0.0713408 -0.0658341 -0.0590442 -0.0116018 -0.127707 -3.22915e-05 -0.00896376 0.0612516 0.0123403 -0.0723249 -0.039104 -0.0867044 0.135121 0.175879 -0.041531 0.0806974 -0.0578425 0.0385964 0.0201489 -0.18115 0.0293915 0.187036 -0.0796764 -0.0343358 -0.0130619 0.00629332 -0.185572 -0.0533144 0.0376401 0.0537479 -0.105064 0.0237178 0.134996 -0.0558364 0.138504 0.0764796 0.111304 -0.0667843 0.0199905 0.121542 0.0138949 0.111242 0.00855025 0.178309 0.232368 -0.0164093 -0.0260845 -0.0448009 -0.144167 0.103734 0.104978 0.0434104 -0.0710486 0.0297566 -0.118441 0.0368349 -0.0853452 0.123962 0.125428 0.0967583 -0.0850956 -0.0078651 0.0495408 -0.00983341 -0.039412 -0.0642349 0.117136 -0.0694278 0.0171759 0.0639169 -0.043339 0.0764894 0.0183452 0.081764 -0.0934915 -0.0160402 -0.106994 -0.13283 0.0919899 0.143419 -0.0313924 0.102021 0.0411547 -0.145907 -0.0734028 -0.0233006 0.0462263 -0.0324423 0.0077291 0.0609828 -0.0907937 -0.0568662 0.0269606 0.0466698 -0.129868 0.00325188 -0.0513241 -0.17739 -0.0362303 -0.130508 -0.104624 0.0951249 0.0132764 0.0354308 0.0323159 -0.095391 0.0777495 0.0926203 -0.135585 -0.189381 0.121151 -0.0188729 -0.0421569 -0.0561103 -0.0688332 0.103447 -0.150678 0.0255324 0.0846191 0.118454 -0.0163896 -0.0607262 -0.0583626 0.0187951 0.103837 
生物 -0.124314 0.0974616 0.0356348 0.085919 0.164073 -0.018084 -0.049925 -0.0628756 0.0271342 -0.0747618 0.0508194 -0.00809134 -0.00744568 0.0630245 0.202199 0.0738056 0.112088 0.198335 -0.0904772 0.0107686 0.111558 0.0105443 -0.156252 0.132953 0.0792724 0.0356801 0.123922 -0.0157404 -0.000237618 0.00660315 -0.0424075 -0.0730556 0.0666151 0.0488835 -0.0382212 -0.00254861 0.0628177 0.0670719 0.0927754 0.00762923 -0.132236 -0.0208084 0.141507 0.0479859 0.101903 -0.13093 0.148167 0.026383 -0.0505835 -0.125491 -0.0526487 0.054292 -0.00912672 -0.0484705 0.155357 0.0125945 0.0572158 0.14599 0.0984128 0.0347111 -0.0606124 -0.0410356 -0.0773872 -0.12175 -0.0647522 -0.101285 -0.130845 -0.0465127 -0.0587636 0.00755911 -0.0238388 0.0428511 -0.0780771 0.0810186 -0.039558 -0.0820514 -0.0599389 0.171759 -0.190045 0.0783411 0.0681137 -0.163457 0.0706446 0.117576 -0.0383539 0.0225679 0.131906 0.159192 0.0464104 0.106635 -0.0762917 -0.021603 0.0714968 0.0784836 0.0120762 0.0122204 -0.0431387 0.151884 0.126093 -0.0635975 -0.148704 0.0652621 0.0397203 -0.101573 0.0770361 -0.00651967 0.131945 0.0330482 0.0786622 -0.0829719 0.0396291 0.013713 0.0621772 -0.0483771 -0.0958853 0.0644 0.0847362 -0.0471566 0.05497 -0.14215 -0.208371 -0.0624159 0.0178888 -0.0206302 -0.0789564 -0.092064 0.0174786 -0.00422479 
歌手 0.0586131 -0.0811643 0.0916507 0.195815 -0.104942 -0.139045 0.0505148 -0.0858175 0.0593413 0.0789723 -0.0683469 -0.151081 0.108406 -0.122738 0.0307808 0.061367 -0.0801532 -0.119896 0.0863124 -0.0875004 -0.0834002 0.0715026 0.20187 0.0418737 0.0385313 0.115665 0.0511511 -0.161114 -0.0196653 0.00761277 0.0496909 0.0315816 -0.114463 0.0713928 0.100783 0.0416894 -0.114513 -0.0440336 0.0732434 -0.00146743 -0.0628169 0.158309 -0.0882503 -0.0200224 0.0206408 0.121433 -0.017417 0.0681695 0.0928666 -0.0379271 0.111685 0.0491105 -0.000483242 0.115706 -0.0405314 -0.02979 -0.0654645 -0.0774852 -0.0108397 0.10321 -0.118141 -0.111625 -0.0445488 -0.144796 -0.00912375 0.0840213 0.16742 -0.0354969 0.130954 0.0155983 0.0455461 0.108918 -0.0992789 0.0320128 -0.0458502 0.0381171 -0.0854331 -0.102653 0.0148622 0.140883 -0.0450548 -0.0374715 -0.0501399 -0.0261021 -0.0883467 -0.135426 -0.095735 0.0368462 -0.118615 -0.128281 0.115776 -0.0736014 -0.126005 -0.0737776 0.0377107 0.154966 0.0280122 -0.0316255 0.113896 0.0123398 -0.0700381 0.123031 0.0508666 -0.125605 0.0152886 0.0538606 0.119064 -0.0176769 -0.177106 -0.114798 0.0825824 -0.0385139 0.0549739 -0.128391 -0.00588263 0.062836 -0.0630461 -0.109309 0.0885654 -0.0212843 0.0650659 0.00875524 -0.0856311 0.0971495 0.0931145 -0.0967266 -0.0346971 0.0769454 
